digraph Tree {
node [shape=box, fontname="helvetica"] ;
edge [fontname="helvetica"] ;
0 [label="V47 <= 5.5\ngini = 0.5\nsamples = 4657\nvalue = [2328.5, 2328.5]\nclass = 0"] ;
1 [label="V37 <= 2.5\ngini = 0.414\nsamples = 2766\nvalue = [1433.373, 592.557]\nclass = 0"] ;
0 -> 1 [labeldistance=2.5, labelangle=45, headlabel="True"] ;
2 [label="V54 <= 1.0\ngini = 0.472\nsamples = 1353\nvalue = [692.487, 425.64]\nclass = 0"] ;
1 -> 2 ;
3 [label="V17 <= 1.5\ngini = 0.483\nsamples = 1209\nvalue = [615.898, 425.64]\nclass = 0"] ;
2 -> 3 ;
4 [label="gini = 0.182\nsamples = 140\nvalue = [73.929, 8.346]\nclass = 0"] ;
3 -> 4 ;
5 [label="gini = 0.492\nsamples = 1069\nvalue = [541.969, 417.294]\nclass = 0"] ;
3 -> 5 ;
6 [label="gini = 0.0\nsamples = 144\nvalue = [76.588, 0.0]\nclass = 0"] ;
2 -> 6 ;
7 [label="V23 <= 1.5\ngini = 0.3\nsamples = 1413\nvalue = [740.886, 166.918]\nclass = 0"] ;
1 -> 7 ;
8 [label="V22 <= 2.5\ngini = 0.439\nsamples = 402\nvalue = [207.427, 100.151]\nclass = 0"] ;
7 -> 8 ;
9 [label="gini = 0.0\nsamples = 131\nvalue = [69.674, 0.0]\nclass = 0"] ;
8 -> 9 ;
10 [label="gini = 0.488\nsamples = 271\nvalue = [137.753, 100.151]\nclass = 0"] ;
8 -> 10 ;
11 [label="V1 <= 30.5\ngini = 0.198\nsamples = 1011\nvalue = [533.459, 66.767]\nclass = 0"] ;
7 -> 11 ;
12 [label="gini = 0.0\nsamples = 455\nvalue = [241.998, 0.0]\nclass = 0"] ;
11 -> 12 ;
13 [label="gini = 0.303\nsamples = 556\nvalue = [291.461, 66.767]\nclass = 0"] ;
11 -> 13 ;
14 [label="V59 <= 2.5\ngini = 0.449\nsamples = 1891\nvalue = [895.127, 1735.943]\nclass = 1"] ;
0 -> 14 [labeldistance=2.5, labelangle=-45, headlabel="False"] ;
15 [label="V19 <= 2.5\ngini = 0.5\nsamples = 915\nvalue = [456.339, 475.715]\nclass = 1"] ;
14 -> 15 ;
16 [label="V10 <= 5.5\ngini = 0.485\nsamples = 676\nvalue = [344.116, 242.03]\nclass = 0"] ;
15 -> 16 ;
17 [label="gini = 0.321\nsamples = 254\nvalue = [132.966, 33.384]\nclass = 0"] ;
16 -> 17 ;
18 [label="gini = 0.5\nsamples = 422\nvalue = [211.15, 208.647]\nclass = 0"] ;
16 -> 18 ;
19 [label="V37 <= 3.5\ngini = 0.438\nsamples = 239\nvalue = [112.223, 233.685]\nclass = 1"] ;
15 -> 19 ;
20 [label="gini = 0.41\nsamples = 206\nvalue = [94.672, 233.685]\nclass = 1"] ;
19 -> 20 ;
21 [label="gini = -0.0\nsamples = 33\nvalue = [17.552, 0.0]\nclass = 0"] ;
19 -> 21 ;
22 [label="V18 <= 5.5\ngini = 0.383\nsamples = 976\nvalue = [438.788, 1260.228]\nclass = 1"] ;
14 -> 22 ;
23 [label="V13 <= 2.5\ngini = 0.33\nsamples = 641\nvalue = [274.442, 1043.235]\nclass = 1"] ;
22 -> 23 ;
24 [label="gini = 0.294\nsamples = 478\nvalue = [196.79, 901.355]\nclass = 1"] ;
23 -> 24 ;
25 [label="gini = 0.457\nsamples = 163\nvalue = [77.652, 141.88]\nclass = 1"] ;
23 -> 25 ;
26 [label="V36 <= 2.5\ngini = 0.49\nsamples = 335\nvalue = [164.346, 216.993]\nclass = 1"] ;
22 -> 26 ;
27 [label="gini = 0.464\nsamples = 252\nvalue = [120.733, 208.647]\nclass = 1"] ;
26 -> 27 ;
28 [label="gini = 0.27\nsamples = 83\nvalue = [43.613, 8.346]\nclass = 0"] ;
26 -> 28 ;
}